0.19327021195706,0.500546027963154,0.036946484160978,0.437330184537115,0.137965482154618,-0.0492166706281114,0.278154622784506,-0.350783980214132,0.540479593154614,-0.446506703491567,0.110726496143272,-0.11488657687572,-0.0326381403167591,-0.390548973775427,0.614087290322314,-0.107388362132556,0.473313073478188,-0.103691407717613,-0.302549518066884,-0.0449303635844642,-0.483116363200401,0.308949453249906,0.130223295861948,-0.0597898216053583,0.453646758229049,0.412812922233312,-0.377942846987596,-0.338766467369606,0.40438743016666,-0.153368648401404,-0.462111526915572,0.16943900432383,0.121324397958121,-0.182127749772429,-0.382239963368101,-0.26089280957195,-1.64264166474341,-1.96006899678387,-0.55339379109511,-4.55628543403449,3.85727629277693,3.24778598711895,-0.179168400725468,-0.005565784668945,0.4136910818207,-0.683995875568258,0.129665243421378,-0.177270384972084,-0.381226698355406,-0.266045993610254,0.685788999680884,-0.908636671648972,-0.221288148868227,-0.244686191790459,0.0584678026078411,-0.0440603963049436,-1.34158333775869,1.17533704700138,-0.475795373714858,0.198644404104267,0.411403658016403,0.380591234779232,0.0413954367273476,0.198263176156425,0.0726882560765445,0.21404791319291,-0.495911389110243,0.121452123415088,0.145133827454493,0.3194721933281,-0.313394439831217,0.467581449302738,0.320068138888122,0.781042159799542,0.232691458263642,1.3576505106876,0.419750136386682,-2.19692156165033,0.721200336923829,0.73377494560823,1.3090295988546,2.0785634903245,
