-2.06035586585129,-40.8480127164117,-22.2092674312311,-27.8679789392061,-19.0223714905717,19.9701336701729,0.0735316300688189,1.00258625914369,0.558947964963159,0.0587092318614942,0.312965093115973,-0.425082118254909,0.0337938960256695,-0.111941235156053,-1.35624215859242,0.978952114334236,0.463217635870462,-0.308930425065267,-0.157417068157754,-0.0644795499608208,0.160068965319376,-0.666907727508873,0.0651879931303422,-0.438445527942451,0.165224159006266,0.646583010117273,0.728293483583121,0.841704498906051,-0.178217906509679,0.284759316469734,0.113409097057536,0.137241663778658,0.12918348011033,0.320233599994905,0.54959435927511,-0.383335395477351,-0.0590621466022173,-0.249366223376601,0.845911796817332,0.190568417425061,0.78736026343951,-0.0798569474039404,0.0632992226715967,-0.166714696382004,0.516699489281936,-0.0874006069913341,0.422887429433347,-0.286966725015217,-0.324260607594415,1.00991436037863,0.480098080380751,0.451206062275982,-0.210465783303526,-0.355039838815549,0.123698101078016,0.108084386959142,0.0296358520256029,-0.1911830991194,0.226487489034733,-0.0932871738115156,-0.540715214136292,-0.266940101182269,0.0730063416937543,0.0990367312898068,0.164775087600069,-0.130814660790088,-0.160319894003504,0.270610519827234,0.132641968867523,0.110376491540113,-0.463021396328815,-6.02451760730057,0.380807592509313,-0.189098830570927,-0.770402376419041,-1.91635388054992,-0.193095559663984,1.00608902296513,0.0812225191565848,-0.318404581489244,-0.482268672195649,4.52858584210379,
