-0.449930908987218,0.0726498152601264,-0.382858896330509,-0.0903501029079493,0.28488214052276,-0.238128408543152,0.315164434321966,0.0524225144600414,-0.0472852451839795,0.0681133455438227,-0.145031262069433,0.393047532729653,0.129942126910997,0.342106784274861,0.333671612605714,0.0336023780379723,0.134842363738077,-0.311992947046106,0.00347832874341423,0.0317840566303826,0.454285750423931,0.360453793978814,0.375583757357341,0.264879471226758,0.0372104768799099,-0.252256857077413,0.414507896889736,-0.431499776486937,0.262046109747646,0.238803597672606,-0.274083000639135,-0.0847120586038288,0.0153674456153259,0.312840655866612,-0.0925358431186762,0.36032917445656,-0.258579098082886,-0.433740414164804,-0.481724525220346,-0.521382820724263,0.00251442576544277,-0.0843276629797596,0.0946168889584772,-0.41751071726207,-0.416750973159159,-0.45378281138541,-0.378469609788808,-0.183645736455394,-0.389741517319636,0.338833324749661,0.447612555606142,0.12192322908185,0.257087069404877,0.0680567381607841,0.476174096853063,0.185841779161696,0.421487203088792,-0.302143653086264,-0.3012231489536,-0.10414508679961,0.0366031486386557,-0.188476270543687,0.115002273027281,-0.0384203736296683,-0.230673258529326,-0.221708676030351,-0.0709651330510634,-0.388037681122313,0.349635876196851,0.257971185121801,-0.0670046740834306,0.32576906069416,-0.413677320964697,0.169694773129424,0.350634937822626,0.428102599678995,-0.593485786680263,-0.237987165501799,-0.448851431011479,0.166323629291938,0.0484729168864307,0.318720508334563,
