0.84748848665346,-3.90320972958539,-5.70058369650907,-8.20279079583977,0.0861745209477394,5.41208504899278,0.103171247580902,-0.30651765321271,-0.13702058015277,-0.160607154733717,0.577322721885133,0.353627961561879,0.107274015986924,0.00903687082327313,0.498028621284471,0.353062393719818,-0.111796348089356,-0.723235610716683,0.0708507579919397,-0.00128422589420983,0.253375629981358,-0.523649549619812,-0.125103576431112,-0.254604354944449,-0.299461552362702,-0.0679260704037241,-0.466508344047456,0.34813438345092,0.137664150184909,0.013925498564264,0.177892849028872,0.0447085908773155,0.238472066984754,-0.638625643224521,-0.0821184250832763,-0.292805682207578,-0.432089179608091,-0.272065364740476,0.0787035450622803,1.3168868707649,-0.338596612646075,0.70941601014899,0.108333152169282,0.296591447422506,-0.263153343563278,-0.562166442640633,0.572142125943205,-0.238959265904343,-0.318200998929775,0.190593548044281,-0.13523924218376,-0.869845670831967,0.0846219472721645,-0.417684392168681,0.394129055040214,-4.61225215984177,-5.36699709048829,-9.39696973782393,0.821483892010026,6.64299633134192,-0.0241984258403071,-0.0903070132154983,0.240466743264841,0.237806092772722,0.066411444220697,-0.0059631213292651,0.243435935409328,0.248107836335734,0.0822143479957794,-0.202315228962988,-0.525370105956342,-2.38269319483538,-0.149148313741884,0.10762292572226,0.53337092774715,0.511728684459902,1.82777661411269,1.8199347657426,1.4942253143065,0.435036945885017,-2.5132022529218,4.47874039812319,
